digraph Tree {
node [shape=box] ;
0 [label="X[23] <= 0.236\nentropy = 1.556\nsamples = 80000\nvalue = [345, 2, 1, 7, 3, 196, 3, 2, 4, 17194, 45, 15941\n1, 37, 180, 3, 238, 45469, 1, 157, 170, 1]"] ;
1 [label="X[28] <= -1.041\nentropy = 1.335\nsamples = 34578\nvalue = [345, 2, 1, 7, 3, 196, 3, 2, 4, 17194, 45, 15936\n1, 37, 180, 3, 238, 52, 1, 157, 170, 1]"] ;
0 -> 1 [labeldistance=2.5, labelangle=45, headlabel="True"] ;
2 [label="X[34] <= 1.171\nentropy = 0.156\nsamples = 17362\nvalue = [0, 0, 0, 0, 0, 0, 0, 0, 0, 17041, 0, 73, 0\n0, 17, 0, 221, 0, 0, 10, 0, 0]"] ;
1 -> 2 ;
3 [label="X[4] <= -1.279\nentropy = 0.02\nsamples = 17068\nvalue = [0, 0, 0, 0, 0, 0, 0, 0, 0, 17038, 0, 23, 0\n0, 5, 0, 2, 0, 0, 0, 0, 0]"] ;
2 -> 3 ;
4 [label="X[29] <= 5.312\nentropy = 0.004\nsamples = 17043\nvalue = [0, 0, 0, 0, 0, 0, 0, 0, 0, 17038, 0, 0, 0, 0\n5, 0, 0, 0, 0, 0, 0, 0]"] ;
3 -> 4 ;
5 [label="entropy = 0.0\nsamples = 17017\nvalue = [0, 0, 0, 0, 0, 0, 0, 0, 0, 17017, 0, 0, 0, 0\n0, 0, 0, 0, 0, 0, 0, 0]"] ;
4 -> 5 ;
6 [label="entropy = 0.706\nsamples = 26\nvalue = [0, 0, 0, 0, 0, 0, 0, 0, 0, 21, 0, 0, 0, 0\n5, 0, 0, 0, 0, 0, 0, 0]"] ;
4 -> 6 ;
7 [label="entropy = 0.402\nsamples = 25\nvalue = [0, 0, 0, 0, 0, 0, 0, 0, 0, 0, 0, 23, 0, 0\n0, 0, 2, 0, 0, 0, 0, 0]"] ;
3 -> 7 ;
8 [label="X[4] <= -1.247\nentropy = 1.173\nsamples = 294\nvalue = [0, 0, 0, 0, 0, 0, 0, 0, 0, 3, 0, 50, 0, 0\n12, 0, 219, 0, 0, 10, 0, 0]"] ;
2 -> 8 ;
9 [label="X[29] <= 8.804\nentropy = 0.39\nsamples = 234\nvalue = [0, 0, 0, 0, 0, 0, 0, 0, 0, 3, 0, 0, 0, 0\n12, 0, 219, 0, 0, 0, 0, 0]"] ;
8 -> 9 ;
10 [label="entropy = 1.404\nsamples = 25\nvalue = [0, 0, 0, 0, 0, 0, 0, 0, 0, 3, 0, 0, 0, 0\n12, 0, 10, 0, 0, 0, 0, 0]"] ;
9 -> 10 ;
11 [label="entropy = 0.0\nsamples = 209\nvalue = [0, 0, 0, 0, 0, 0, 0, 0, 0, 0, 0, 0, 0, 0\n0, 0, 209, 0, 0, 0, 0, 0]"] ;
9 -> 11 ;
12 [label="X[35] <= 0.753\nentropy = 0.65\nsamples = 60\nvalue = [0, 0, 0, 0, 0, 0, 0, 0, 0, 0, 0, 50, 0, 0\n0, 0, 0, 0, 0, 10, 0, 0]"] ;
8 -> 12 ;
13 [label="entropy = 0.929\nsamples = 29\nvalue = [0, 0, 0, 0, 0, 0, 0, 0, 0, 0, 0, 19, 0, 0\n0, 0, 0, 0, 0, 10, 0, 0]"] ;
12 -> 13 ;
14 [label="entropy = 0.0\nsamples = 31\nvalue = [0, 0, 0, 0, 0, 0, 0, 0, 0, 0, 0, 31, 0, 0\n0, 0, 0, 0, 0, 0, 0, 0]"] ;
12 -> 14 ;
15 [label="X[4] <= -1.224\nentropy = 0.641\nsamples = 17216\nvalue = [345, 2, 1, 7, 3, 196, 3, 2, 4, 153, 45, 15863\n1, 37, 163, 3, 17, 52, 1, 147, 170, 1]"] ;
1 -> 15 ;
16 [label="X[2] <= -0.046\nentropy = 1.963\nsamples = 1773\nvalue = [0, 1, 0, 0, 2, 196, 3, 1, 1, 153, 41, 1047, 0\n0, 163, 1, 16, 0, 0, 147, 0, 1]"] ;
15 -> 16 ;
17 [label="X[1] <= 0.057\nentropy = 0.905\nsamples = 1264\nvalue = [0, 1, 0, 0, 0, 180, 3, 1, 1, 19, 20, 1034, 0\n0, 3, 0, 1, 0, 0, 0, 0, 1]"] ;
16 -> 17 ;
18 [label="X[36] <= 9.2\nentropy = 0.474\nsamples = 197\nvalue = [0, 0, 0, 0, 0, 177, 0, 0, 0, 0, 20, 0, 0, 0\n0, 0, 0, 0, 0, 0, 0, 0]"] ;
17 -> 18 ;
19 [label="entropy = 0.938\nsamples = 31\nvalue = [0, 0, 0, 0, 0, 11, 0, 0, 0, 0, 20, 0, 0, 0\n0, 0, 0, 0, 0, 0, 0, 0]"] ;
18 -> 19 ;
20 [label="entropy = 0.0\nsamples = 166\nvalue = [0, 0, 0, 0, 0, 166, 0, 0, 0, 0, 0, 0, 0, 0\n0, 0, 0, 0, 0, 0, 0, 0]"] ;
18 -> 20 ;
21 [label="X[37] <= 1.168\nentropy = 0.266\nsamples = 1067\nvalue = [0, 1, 0, 0, 0, 3, 3, 1, 1, 19, 0, 1034, 0, 0\n3, 0, 1, 0, 0, 0, 0, 1]"] ;
17 -> 21 ;
22 [label="X[32] <= -1.743\nentropy = 0.112\nsamples = 1042\nvalue = [0, 1, 0, 0, 0, 3, 0, 1, 1, 0, 0, 1031, 0, 0\n3, 0, 1, 0, 0, 0, 0, 1]"] ;
21 -> 22 ;
23 [label="entropy = 1.12\nsamples = 45\nvalue = [0, 1, 0, 0, 0, 2, 0, 1, 1, 0, 0, 37, 0, 0\n2, 0, 1, 0, 0, 0, 0, 0]"] ;
22 -> 23 ;
24 [label="X[2] <= -0.199\nentropy = 0.034\nsamples = 997\nvalue = [0, 0, 0, 0, 0, 1, 0, 0, 0, 0, 0, 994, 0, 0\n1, 0, 0, 0, 0, 0, 0, 1]"] ;
22 -> 24 ;
25 [label="X[35] <= -1.18\nentropy = 0.219\nsamples = 113\nvalue = [0, 0, 0, 0, 0, 1, 0, 0, 0, 0, 0, 110, 0, 0\n1, 0, 0, 0, 0, 0, 0, 1]"] ;
24 -> 25 ;
26 [label="entropy = 0.0\nsamples = 88\nvalue = [0, 0, 0, 0, 0, 0, 0, 0, 0, 0, 0, 88, 0, 0\n0, 0, 0, 0, 0, 0, 0, 0]"] ;
25 -> 26 ;
27 [label="entropy = 0.72\nsamples = 25\nvalue = [0, 0, 0, 0, 0, 1, 0, 0, 0, 0, 0, 22, 0, 0\n1, 0, 0, 0, 0, 0, 0, 1]"] ;
25 -> 27 ;
28 [label="entropy = 0.0\nsamples = 884\nvalue = [0, 0, 0, 0, 0, 0, 0, 0, 0, 0, 0, 884, 0, 0\n0, 0, 0, 0, 0, 0, 0, 0]"] ;
24 -> 28 ;
29 [label="entropy = 1.035\nsamples = 25\nvalue = [0, 0, 0, 0, 0, 0, 3, 0, 0, 19, 0, 3, 0, 0\n0, 0, 0, 0, 0, 0, 0, 0]"] ;
21 -> 29 ;
30 [label="X[3] <= -0.378\nentropy = 2.23\nsamples = 509\nvalue = [0, 0, 0, 0, 2, 16, 0, 0, 0, 134, 21, 13, 0\n0, 160, 1, 15, 0, 0, 147, 0, 0]"] ;
16 -> 30 ;
31 [label="X[24] <= 1.396\nentropy = 1.362\nsamples = 317\nvalue = [0, 0, 0, 0, 0, 16, 0, 0, 0, 134, 0, 7, 0, 0\n160, 0, 0, 0, 0, 0, 0, 0]"] ;
30 -> 31 ;
32 [label="X[35] <= -0.816\nentropy = 0.702\nsamples = 184\nvalue = [0, 0, 0, 0, 0, 16, 0, 0, 0, 1, 0, 7, 0, 0\n160, 0, 0, 0, 0, 0, 0, 0]"] ;
31 -> 32 ;
33 [label="entropy = 1.534\nsamples = 28\nvalue = [0, 0, 0, 0, 0, 16, 0, 0, 0, 1, 0, 7, 0, 0\n4, 0, 0, 0, 0, 0, 0, 0]"] ;
32 -> 33 ;
34 [label="entropy = 0.0\nsamples = 156\nvalue = [0, 0, 0, 0, 0, 0, 0, 0, 0, 0, 0, 0, 0, 0\n156, 0, 0, 0, 0, 0, 0, 0]"] ;
32 -> 34 ;
35 [label="entropy = 0.0\nsamples = 133\nvalue = [0, 0, 0, 0, 0, 0, 0, 0, 0, 133, 0, 0, 0, 0\n0, 0, 0, 0, 0, 0, 0, 0]"] ;
31 -> 35 ;
36 [label="X[7] <= 5.539\nentropy = 1.196\nsamples = 192\nvalue = [0, 0, 0, 0, 2, 0, 0, 0, 0, 0, 21, 6, 0, 0\n0, 1, 15, 0, 0, 147, 0, 0]"] ;
30 -> 36 ;
37 [label="entropy = 1.751\nsamples = 45\nvalue = [0, 0, 0, 0, 2, 0, 0, 0, 0, 0, 21, 6, 0, 0\n0, 1, 15, 0, 0, 0, 0, 0]"] ;
36 -> 37 ;
38 [label="entropy = 0.0\nsamples = 147\nvalue = [0, 0, 0, 0, 0, 0, 0, 0, 0, 0, 0, 0, 0, 0\n0, 0, 0, 0, 0, 147, 0, 0]"] ;
36 -> 38 ;
39 [label="X[4] <= 3.505\nentropy = 0.319\nsamples = 15443\nvalue = [345, 1, 1, 7, 1, 0, 0, 1, 3, 0, 4, 14816, 1\n37, 0, 2, 1, 52, 1, 0, 170, 0]"] ;
15 -> 39 ;
40 [label="X[2] <= -0.199\nentropy = 0.165\nsamples = 15064\nvalue = [0, 1, 1, 7, 1, 0, 0, 1, 3, 0, 4, 14790, 1\n37, 0, 2, 1, 52, 1, 0, 162, 0]"] ;
39 -> 40 ;
41 [label="X[4] <= -0.745\nentropy = 0.734\nsamples = 1955\nvalue = [0, 0, 1, 0, 0, 0, 0, 1, 1, 0, 0, 1702, 0, 36\n0, 0, 0, 52, 0, 0, 162, 0]"] ;
40 -> 41 ;
42 [label="X[31] <= -3.43\nentropy = 0.047\nsamples = 1199\nvalue = [0, 0, 1, 0, 0, 0, 0, 1, 1, 0, 0, 1194, 0, 0\n0, 0, 0, 0, 0, 0, 2, 0]"] ;
41 -> 42 ;
43 [label="entropy = 0.656\nsamples = 37\nvalue = [0, 0, 1, 0, 0, 0, 0, 1, 0, 0, 0, 33, 0, 0\n0, 0, 0, 0, 0, 0, 2, 0]"] ;
42 -> 43 ;
44 [label="X[32] <= -1.734\nentropy = 0.01\nsamples = 1162\nvalue = [0, 0, 0, 0, 0, 0, 0, 0, 1, 0, 0, 1161, 0, 0\n0, 0, 0, 0, 0, 0, 0, 0]"] ;
42 -> 44 ;
45 [label="entropy = 0.242\nsamples = 25\nvalue = [0, 0, 0, 0, 0, 0, 0, 0, 1, 0, 0, 24, 0, 0\n0, 0, 0, 0, 0, 0, 0, 0]"] ;
44 -> 45 ;
46 [label="entropy = 0.0\nsamples = 1137\nvalue = [0, 0, 0, 0, 0, 0, 0, 0, 0, 0, 0, 1137, 0, 0\n0, 0, 0, 0, 0, 0, 0, 0]"] ;
44 -> 46 ;
47 [label="X[1] <= 0.057\nentropy = 1.334\nsamples = 756\nvalue = [0, 0, 0, 0, 0, 0, 0, 0, 0, 0, 0, 508, 0, 36\n0, 0, 0, 52, 0, 0, 160, 0]"] ;
41 -> 47 ;
48 [label="X[7] <= 5.539\nentropy = 0.976\nsamples = 88\nvalue = [0, 0, 0, 0, 0, 0, 0, 0, 0, 0, 0, 0, 0, 36\n0, 0, 0, 52, 0, 0, 0, 0]"] ;
47 -> 48 ;
49 [label="entropy = 0.0\nsamples = 52\nvalue = [0, 0, 0, 0, 0, 0, 0, 0, 0, 0, 0, 0, 0, 0\n0, 0, 0, 52, 0, 0, 0, 0]"] ;
48 -> 49 ;
50 [label="entropy = 0.0\nsamples = 36\nvalue = [0, 0, 0, 0, 0, 0, 0, 0, 0, 0, 0, 0, 0, 36\n0, 0, 0, 0, 0, 0, 0, 0]"] ;
48 -> 50 ;
51 [label="X[35] <= 0.701\nentropy = 0.794\nsamples = 668\nvalue = [0, 0, 0, 0, 0, 0, 0, 0, 0, 0, 0, 508, 0, 0\n0, 0, 0, 0, 0, 0, 160, 0]"] ;
47 -> 51 ;
52 [label="X[9] <= 31.852\nentropy = 0.48\nsamples = 560\nvalue = [0, 0, 0, 0, 0, 0, 0, 0, 0, 0, 0, 502, 0, 0\n0, 0, 0, 0, 0, 0, 58, 0]"] ;
51 -> 52 ;
53 [label="X[4] <= -0.412\nentropy = 0.19\nsamples = 515\nvalue = [0, 0, 0, 0, 0, 0, 0, 0, 0, 0, 0, 500, 0, 0\n0, 0, 0, 0, 0, 0, 15, 0]"] ;
52 -> 53 ;
54 [label="entropy = 0.843\nsamples = 48\nvalue = [0, 0, 0, 0, 0, 0, 0, 0, 0, 0, 0, 35, 0, 0\n0, 0, 0, 0, 0, 0, 13, 0]"] ;
53 -> 54 ;
55 [label="X[0] <= 0.044\nentropy = 0.04\nsamples = 467\nvalue = [0, 0, 0, 0, 0, 0, 0, 0, 0, 0, 0, 465, 0, 0\n0, 0, 0, 0, 0, 0, 2, 0]"] ;
53 -> 55 ;
56 [label="entropy = 0.0\nsamples = 438\nvalue = [0, 0, 0, 0, 0, 0, 0, 0, 0, 0, 0, 438, 0, 0\n0, 0, 0, 0, 0, 0, 0, 0]"] ;
55 -> 56 ;
57 [label="entropy = 0.362\nsamples = 29\nvalue = [0, 0, 0, 0, 0, 0, 0, 0, 0, 0, 0, 27, 0, 0\n0, 0, 0, 0, 0, 0, 2, 0]"] ;
55 -> 57 ;
58 [label="entropy = 0.262\nsamples = 45\nvalue = [0, 0, 0, 0, 0, 0, 0, 0, 0, 0, 0, 2, 0, 0\n0, 0, 0, 0, 0, 0, 43, 0]"] ;
52 -> 58 ;
59 [label="X[36] <= 2.943\nentropy = 0.31\nsamples = 108\nvalue = [0, 0, 0, 0, 0, 0, 0, 0, 0, 0, 0, 6, 0, 0\n0, 0, 0, 0, 0, 0, 102, 0]"] ;
51 -> 59 ;
60 [label="entropy = 0.764\nsamples = 27\nvalue = [0, 0, 0, 0, 0, 0, 0, 0, 0, 0, 0, 6, 0, 0\n0, 0, 0, 0, 0, 0, 21, 0]"] ;
59 -> 60 ;
61 [label="entropy = 0.0\nsamples = 81\nvalue = [0, 0, 0, 0, 0, 0, 0, 0, 0, 0, 0, 0, 0, 0\n0, 0, 0, 0, 0, 0, 81, 0]"] ;
59 -> 61 ;
62 [label="X[2] <= 2.139\nentropy = 0.022\nsamples = 13109\nvalue = [0, 1, 0, 7, 1, 0, 0, 0, 2, 0, 4, 13088, 1, 1\n0, 2, 1, 0, 1, 0, 0, 0]"] ;
40 -> 62 ;
63 [label="X[5] <= -0.301\nentropy = 0.006\nsamples = 12989\nvalue = [0, 0, 0, 0, 1, 0, 0, 0, 0, 0, 4, 12983, 0, 0\n0, 1, 0, 0, 0, 0, 0, 0]"] ;
62 -> 63 ;
64 [label="X[23] <= -1.201\nentropy = 0.103\nsamples = 413\nvalue = [0, 0, 0, 0, 0, 0, 0, 0, 0, 0, 4, 408, 0, 0\n0, 1, 0, 0, 0, 0, 0, 0]"] ;
63 -> 64 ;
65 [label="X[33] <= -1.83\nentropy = 0.03\nsamples = 328\nvalue = [0, 0, 0, 0, 0, 0, 0, 0, 0, 0, 0, 327, 0, 0\n0, 1, 0, 0, 0, 0, 0, 0]"] ;
64 -> 65 ;
66 [label="X[34] <= 4.714\nentropy = 0.063\nsamples = 135\nvalue = [0, 0, 0, 0, 0, 0, 0, 0, 0, 0, 0, 134, 0, 0\n0, 1, 0, 0, 0, 0, 0, 0]"] ;
65 -> 66 ;
67 [label="entropy = 0.242\nsamples = 25\nvalue = [0, 0, 0, 0, 0, 0, 0, 0, 0, 0, 0, 24, 0, 0\n0, 1, 0, 0, 0, 0, 0, 0]"] ;
66 -> 67 ;
68 [label="entropy = 0.0\nsamples = 110\nvalue = [0, 0, 0, 0, 0, 0, 0, 0, 0, 0, 0, 110, 0, 0\n0, 0, 0, 0, 0, 0, 0, 0]"] ;
66 -> 68 ;
69 [label="entropy = 0.0\nsamples = 193\nvalue = [0, 0, 0, 0, 0, 0, 0, 0, 0, 0, 0, 193, 0, 0\n0, 0, 0, 0, 0, 0, 0, 0]"] ;
65 -> 69 ;
70 [label="X[32] <= 0.383\nentropy = 0.274\nsamples = 85\nvalue = [0, 0, 0, 0, 0, 0, 0, 0, 0, 0, 4, 81, 0, 0\n0, 0, 0, 0, 0, 0, 0, 0]"] ;
64 -> 70 ;
71 [label="entropy = 0.619\nsamples = 26\nvalue = [0, 0, 0, 0, 0, 0, 0, 0, 0, 0, 4, 22, 0, 0\n0, 0, 0, 0, 0, 0, 0, 0]"] ;
70 -> 71 ;
72 [label="entropy = 0.0\nsamples = 59\nvalue = [0, 0, 0, 0, 0, 0, 0, 0, 0, 0, 0, 59, 0, 0\n0, 0, 0, 0, 0, 0, 0, 0]"] ;
70 -> 72 ;
73 [label="X[37] <= 0.014\nentropy = 0.001\nsamples = 12576\nvalue = [0, 0, 0, 0, 1, 0, 0, 0, 0, 0, 0, 12575, 0, 0\n0, 0, 0, 0, 0, 0, 0, 0]"] ;
63 -> 73 ;
74 [label="entropy = 0.0\nsamples = 12551\nvalue = [0, 0, 0, 0, 0, 0, 0, 0, 0, 0, 0, 12551, 0, 0\n0, 0, 0, 0, 0, 0, 0, 0]"] ;
73 -> 74 ;
75 [label="entropy = 0.242\nsamples = 25\nvalue = [0, 0, 0, 0, 1, 0, 0, 0, 0, 0, 0, 24, 0, 0\n0, 0, 0, 0, 0, 0, 0, 0]"] ;
73 -> 75 ;
76 [label="X[33] <= -1.342\nentropy = 0.851\nsamples = 120\nvalue = [0, 1, 0, 7, 0, 0, 0, 0, 2, 0, 0, 105, 1, 1\n0, 1, 1, 0, 1, 0, 0, 0]"] ;
62 -> 76 ;
77 [label="X[35] <= -1.2\nentropy = 0.252\nsamples = 95\nvalue = [0, 0, 0, 0, 0, 0, 0, 0, 0, 0, 0, 92, 1, 0\n0, 1, 0, 0, 1, 0, 0, 0]"] ;
76 -> 77 ;
78 [label="entropy = 0.72\nsamples = 25\nvalue = [0, 0, 0, 0, 0, 0, 0, 0, 0, 0, 0, 22, 1, 0\n0, 1, 0, 0, 1, 0, 0, 0]"] ;
77 -> 78 ;
79 [label="entropy = 0.0\nsamples = 70\nvalue = [0, 0, 0, 0, 0, 0, 0, 0, 0, 0, 0, 70, 0, 0\n0, 0, 0, 0, 0, 0, 0, 0]"] ;
77 -> 79 ;
80 [label="entropy = 1.854\nsamples = 25\nvalue = [0, 1, 0, 7, 0, 0, 0, 0, 2, 0, 0, 13, 0, 1\n0, 0, 1, 0, 0, 0, 0, 0]"] ;
76 -> 80 ;
81 [label="X[5] <= 0.527\nentropy = 0.506\nsamples = 379\nvalue = [345, 0, 0, 0, 0, 0, 0, 0, 0, 0, 0, 26, 0, 0\n0, 0, 0, 0, 0, 0, 8, 0]"] ;
39 -> 81 ;
82 [label="entropy = 0.787\nsamples = 34\nvalue = [0, 0, 0, 0, 0, 0, 0, 0, 0, 0, 0, 26, 0, 0\n0, 0, 0, 0, 0, 0, 8, 0]"] ;
81 -> 82 ;
83 [label="entropy = 0.0\nsamples = 345\nvalue = [345, 0, 0, 0, 0, 0, 0, 0, 0, 0, 0, 0, 0, 0\n0, 0, 0, 0, 0, 0, 0, 0]"] ;
81 -> 83 ;
84 [label="X[22] <= 0.376\nentropy = 0.002\nsamples = 45422\nvalue = [0, 0, 0, 0, 0, 0, 0, 0, 0, 0, 0, 5, 0, 0\n0, 0, 0, 45417, 0, 0, 0, 0]"] ;
0 -> 84 [labeldistance=2.5, labelangle=-45, headlabel="False"] ;
85 [label="entropy = 0.431\nsamples = 34\nvalue = [0, 0, 0, 0, 0, 0, 0, 0, 0, 0, 0, 3, 0, 0\n0, 0, 0, 31, 0, 0, 0, 0]"] ;
84 -> 85 ;
86 [label="X[23] <= 0.832\nentropy = 0.001\nsamples = 45388\nvalue = [0, 0, 0, 0, 0, 0, 0, 0, 0, 0, 0, 2, 0, 0\n0, 0, 0, 45386, 0, 0, 0, 0]"] ;
84 -> 86 ;
87 [label="X[22] <= 0.742\nentropy = 0.008\nsamples = 3020\nvalue = [0, 0, 0, 0, 0, 0, 0, 0, 0, 0, 0, 2, 0, 0\n0, 0, 0, 3018, 0, 0, 0, 0]"] ;
86 -> 87 ;
88 [label="X[23] <= 0.525\nentropy = 0.004\nsamples = 2990\nvalue = [0, 0, 0, 0, 0, 0, 0, 0, 0, 0, 0, 1, 0, 0\n0, 0, 0, 2989, 0, 0, 0, 0]"] ;
87 -> 88 ;
89 [label="X[23] <= 0.518\nentropy = 0.011\nsamples = 1001\nvalue = [0, 0, 0, 0, 0, 0, 0, 0, 0, 0, 0, 1, 0, 0\n0, 0, 0, 1000, 0, 0, 0, 0]"] ;
88 -> 89 ;
90 [label="entropy = 0.0\nsamples = 881\nvalue = [0, 0, 0, 0, 0, 0, 0, 0, 0, 0, 0, 0, 0, 0\n0, 0, 0, 881, 0, 0, 0, 0]"] ;
89 -> 90 ;
91 [label="entropy = 0.07\nsamples = 120\nvalue = [0, 0, 0, 0, 0, 0, 0, 0, 0, 0, 0, 1, 0, 0\n0, 0, 0, 119, 0, 0, 0, 0]"] ;
89 -> 91 ;
92 [label="entropy = 0.0\nsamples = 1989\nvalue = [0, 0, 0, 0, 0, 0, 0, 0, 0, 0, 0, 0, 0, 0\n0, 0, 0, 1989, 0, 0, 0, 0]"] ;
88 -> 92 ;
93 [label="entropy = 0.211\nsamples = 30\nvalue = [0, 0, 0, 0, 0, 0, 0, 0, 0, 0, 0, 1, 0, 0\n0, 0, 0, 29, 0, 0, 0, 0]"] ;
87 -> 93 ;
94 [label="entropy = 0.0\nsamples = 42368\nvalue = [0, 0, 0, 0, 0, 0, 0, 0, 0, 0, 0, 0, 0, 0\n0, 0, 0, 42368, 0, 0, 0, 0]"] ;
86 -> 94 ;
}